{"hyper": {"vocab_size": 129, "embed_dim": 5, "hidden_size": 20, "context_length": 3}, "vocab": {"token_to_index": {"": 0, "(": 1, ")": 2, "<COLUMN>": 3, "<FUNC>": 4, "<OPERATOR>": 5, "<TABLE>": 6, "<VALUE>": 7, "ADD": 8, "AFTER": 9, "ALTER": 10, "AND": 11, "AS": 12, "ASC": 13, "AUTO_INCREMENT": 14, "BEGIN": 15, "BETWEEN": 16, "BIGINT": 17, "OUTER": 18, "CROSS": 19, "BY": 20, "FULL": 21, "CASCADE": 22, "CASE": 23, "COMMIT": 24, "COLUMN": 25, "COMMENT": 26, "CONSTRAINT": 27, "CREATE": 28, "ROLLBACK": 29, "EXPLAIN": 30, "ANALYZE": 31, "DATABASE": 32, "SHOW": 33, "DECLARE": 34, "DEFAULT": 35, "DELETE": 36, "DESC": 37, "DETERMINISTIC": 38, "DISTINCT": 39, "DROP": 41, "ELSE": 42, "DATABASES": 43, "END": 44, "EXISTS": 47, "FOR": 49, "FOREIGN": 50, "FROM": 51, "FUNCTION": 52, "GROUP BY": 53, "HASH": 54, "HAVING": 55, "IF EXISTS": 58, "IN": 59, "INDEX": 60, "INNER": 61, "INSERT": 62, "INT": 63, "INTERVAL": 65, "INTO": 66, "IS": 67, "JOIN": 68, "JSON": 69, "KEY": 70, "LEFT": 72, "ILIKE": 73, "LIKE": 74, "LIMIT": 75, "LOCK": 77, "MODIFY": 80, "NOT": 82, "NOT NULL": 83, "NULL": 84, "OFFSET": 85, "ON": 86, "OR": 87, "ORDER BY": 88, "OVER": 89, "PARTITION": 90, "PRIMARY KEY": 93, "RECURSIVE": 94, "REFERENCES": 95, "REPLACE": 96, "RETURN": 97, "RETURNS": 98, "RIGHT": 99, "RENAME": 100, "GRANT": 101, "REVOKE": 102, "OPTIMIZE": 103, "SELECT": 105, "SET": 106, "SMALLINT": 108, "TABLE": 109, "TABLES": 110, "TEMPORARY": 111, "TEXT": 112, "THEN": 113, "TIMESTAMP": 114, "TINYINT": 115, "TRUNCATE": 116, "UNION ALL": 119, "UNION": 120, "UNIQUE": 121, "UNSIGNED": 122, "UPDATE": 123, "VALUES": 124, "VIEWS": 125, "WHEN": 126, "WHERE": 127, "WITH": 128}, "index_to_token": {"0": "", "1": "(", "2": ")", "3": "<COLUMN>", "4": "<FUNC>", "5": "<OPERATOR>", "6": "<TABLE>", "7": "<VALUE>", "8": "ADD", "9": "AFTER", "10": "ALTER", "11": "AND", "12": "AS", "13": "ASC", "14": "AUTO_INCREMENT", "15": "BEGIN", "16": "BETWEEN", "17": "BIGINT", "18": "OUTER", "19": "CROSS", "20": "BY", "21": "FULL", "22": "CASCADE", "23": "CASE", "24": "COMMIT", "25": "COLUMN", "26": "COMMENT", "27": "CONSTRAINT", "28": "CREATE", "29": "ROLLBACK", "30": "EXPLAIN", "31": "ANALYZE", "32": "DATABASE", "33": "SHOW", "34": "DECLARE", "35": "DEFAULT", "36": "DELETE", "37": "DESC", "38": "DETERMINISTIC", "39": "DISTINCT", "41": "DROP", "42": "ELSE", "43": "DATABASES", "44": "END", "47": "EXISTS", "49": "FOR", "50": "FOREIGN", "51": "FROM", "52": "FUNCTION", "53": "GROUP BY", "54": "HASH", "55": "HAVING", "58": "IF EXISTS", "59": "IN", "60": "INDEX", "61": "INNER", "62": "INSERT", "63": "INT", "65": "INTERVAL", "66": "INTO", "67": "IS", "68": "JOIN", "69": "JSON", "70": "KEY", "72": "LEFT", "73": "ILIKE", "74": "LIKE", "75": "LIMIT", "77": "LOCK", "80": "MODIFY", "82": "NOT", "83": "NOT NULL", "84": "NULL", "85": "OFFSET", "86": "ON", "87": "OR", "88": "ORDER BY", "89": "OVER", "90": "PARTITION", "93": "PRIMARY KEY", "94": "RECURSIVE", "95": "REFERENCES", "96": "REPLACE", "97": "RETURN", "98": "RETURNS", "99": "RIGHT", "100": "RENAME", "101": "GRANT", "102": "REVOKE", "103": "OPTIMIZE", "105": "SELECT", "106": "SET", "108": "SMALLINT", "109": "TABLE", "110": "TABLES", "111": "TEMPORARY", "112": "TEXT", "113": "THEN", "114": "TIMESTAMP", "115": "TINYINT", "116": "TRUNCATE", "119": "UNION ALL", "120": "UNION", "121": "UNIQUE", "122": "UNSIGNED", "123": "UPDATE", "124": "VALUES", "125": "VIEWS", "126": "WHEN", "127": "WHERE", "128": "WITH"}}, "weights": {"embedding_matrix": [-0.9301766327877158, 1.217164878455221, -0.5581817396467874, 2.78411489760007, 0.8756851582785555, 4.09700232106165, 0.5806692201746981, 5.579505175697958, 2.4880552615685705, 1.6753502316869828, 0.9480158758642271, 2.798382093746863, 1.7294203305843576, 3.1918756431999182, -6.613348407338294, -3.3714583950199293, -1.6556303111291317, 7.16838914243274, 0.04594863641287914, -6.591467157034316, -0.9890242678320808, -7.751278802446534, 1.3294771531564997, 1.5758030256852271, -2.3512540447235803, 0.3494200324927176, -0.3427725405780572, -0.5089163973291413, -1.5699024135153228, 2.794273986562747, 4.639522827920089, -5.599947144573687, -1.2502526096153916, -1.4059755511940615, -5.3820293801245125, 2.044632083716646, 0.26946070868494665, 5.41240572149421, -2.1373089057649723, -1.8795434573537506, 0.6675445620810266, 0.5485151042300493, -0.7211960136085406, 0.26897581980775154, -1.6273902860395453, 1.2058067835032227, 0.12876793345889112, -0.5112908818914791, 0.03214473889860295, 0.5132263784850564, 1.0903181562196156, 0.6661750003473635, 0.47479304355039764, -1.1908553978396286, -0.4002126784681454, -2.2391271154936843, 0.2149936416393899, 0.4855215061728487, -1.8515913087213605, -0.4380156928367478, -1.1286083487165335, -2.8818124246463777, 0.32510250831773835, 3.185306167636489, 2.999946474825427, -0.07218392030391442, 0.0016765660393630675, 0.012661867967103094, -0.015779608240683533, 0.03618159931840483, -0.21500971765648444, 0.27108241924362236, 0.7828662715260831, 0.7406567251492511, -0.9689171555658674, -0.2922189404318896, 0.544327615780307, 0.6768673373875427, -0.7158024372470482, -1.1098896377726921, 0.05194606554412432, -0.2075669145963631, -0.4716279457913958, -1.6065105619548914, 1.1858816996524653, -0.3805582888238107, 0.9899799632129859, -1.3460158823257102, 0.16598278557215634, 0.6107027018098807, 0.05423705567268018, 0.04466775993691033, 0.013684665770377117, -0.0505472151722656, 0.045169265717229734, 0.01905235639778761, 0.06134707748571101, -0.001495329634060673, 0.0976550462241923, -0.01794381701609113, -0.03450951177365969, 0.9398459023749, 2.2712684279799986, 0.33699149394375744, 1.3032740741922966, 0.07116605130835921, 0.04081872483073642, 0.03444419321330015, -0.11879362865455989, 0.03554821022850193, 1.646569236799364, 0.5561246230628013, 0.866939036488363, 0.1974445435035232, -0.10798777612748689, -0.6086703851840055, -0.41560595715246734, -1.1322841571926257, 0.09592966409102888, -0.44813495786896324, 0.004888817364433837, -0.062064468831784785, 0.010997271507500643, -0.06048087984868174, 0.04425991551790723, 1.7662173367392378, 0.529019638617438, -0.7557289380634196, 0.41908837701087465, 1.5878405594424019, 0.7891891617101144, 0.09838576357473636, -0.08903056508946576, -0.053726255459408664, 0.16773895814903772, 1.3635046629291305, -0.7468928425629758, -1.0735169114770715, -0.5780662498717833, 0.4695470547680484, 0.16120429483218965, 1.627610345932378, -0.6590439111145403, 1.122965044637109, -0.986833475563659, 0.016019592260255636, -0.07845007098378648, -0.019773128916308932, 0.013057394004554954, 0.041198000625975256, 0.07240508434140504, -0.002207408816463466, -0.055862243953044316, 0.022892519974576996, 0.02584935492068967, 0.02458291714191349, -0.03501438495873665, 0.056669219879344396, 0.004394795545225747, 0.03499123108579929, 0.06370366200472238, 0.03046361602829256, 0.014325801399088529, 0.10763976175502621, 0.012185152048607505, -0.014798211638604071, 0.005598351879151495, 0.07413843342185676, 0.005935624344340012, 0.025968882756960604, 0.7035643758469025, 0.5277553437172756, -0.21453210555604263, 1.260015887069643, 1.9116322005265585, 1.0808825903185062, 1.9352599629984535, -0.010930084525590283, -0.3155882483336081, 1.333450857833852, 0.1071172112918159, -1.0964119097724536, 4.15657287495759, -0.555351380464938, -0.8675128569607081, 1.6764321352518596, 0.5585700234081595, 1.3115183487985436, 1.1504065894589557, -1.9871215188499758, -0.961663694332896, -0.10476892246262892, -1.654485693984989, 0.43109105789011976, 0.264903907802789, -1.4128158309788135, 1.2708607926320066, 0.5355599548531781, 2.427029140811861, 0.47310564803495825, 0.11204718518877839, -0.022107398270677342, 0.01752560206740548, -0.024542375083744582, -0.0345344006308942, -0.47176139295859115, -0.1948740140848512, 0.11489836533541074, 0.4071302704254682, -0.5870900748214174, 0.6989292756959458, -0.8148103749275478, -0.20132209041320212, 0.7044036574816388, 0.7967559785405812, -0.04348645915531446, -0.07476498865541328, -0.02732547676683203, 0.023624421366130285, 0.034667002003064815, 0.9107268228127359, 1.2723409833738315, 0.9872750586585393, 0.7117079396550697, -1.7246102208668335, 0.02328313265856457, -0.09784693926875018, -0.0017525755844078152, 0.0699084045661065, 0.10632740684752176, 0.028084331939238878, 0.015465115639975106, -0.06201028339928645, -0.042162143698375266, 0.0023457928753082896, 0.10998113651117179, -1.928133532929332, 1.574647066578408, 0.3663516338302554, 0.08532878354453623, -0.057848719712988064, 0.03217045913819966, -0.11561405530228303, -0.01666390128047468, 0.02249391660506056, -0.8374331385413283, -0.4386225107591796, -1.382155622676615, -0.08939111169107504, -0.4152919506299944, -1.6093348035724764, -0.08517322559465186, -0.7388715307946281, -1.1171053568470752, -1.8507176049170708, 5.173237833688528, -0.4301206554114038, -3.5839869671385984, -0.9830351812287162, 2.9291475301177017, -0.8107292239645082, -0.003959330758433341, 0.618403313655769, 0.38074898216930664, 0.6189965510452162, -1.653507143116307, 1.6274801915295658, 2.8152766955199704, 0.9910502056437028, 1.5324868639321758, 0.01726096880572572, -0.03848373889395292, -0.06121188379530314, -0.10115225287896748, 0.01645936793737184, -2.4150046224939428, 0.4473824910464543, -0.2328464854097884, -0.7411299690400955, -0.08661630490139621, -0.006818345576327472, -0.03304181931590362, -0.026028922165178405, -0.029240582235269676, -0.10828683597501708, 0.007816302649288336, 0.012494279588108292, -0.01811329054410491, -0.035692073504320736, 0.018590191217763813, 0.8762710344852375, -0.008835928554032872, 0.12411186858345828, 0.10258207964454649, 0.4502355104500501, 0.15524417523484596, -2.897949434960544, -0.7392011487939258, -0.7225338757185188, 0.3803187251185504, 0.1784318026476481, 0.17712619140765795, 1.6457177746063578, 0.9518748322173518, 0.4303083075363135, -0.708890811184137, -1.7337872874623974, -1.8806238586357789, -0.32223129447252663, -0.023768157647275284, 0.14575902601840757, -0.06488733685991865, -1.9437325581266707, 0.09747742810460687, -1.9279800399421798, -0.0443167043020804, 1.3065439591428116, -1.522583671907862, 1.4473625909109291, -0.07784932480006725, 0.09015841193265527, -0.10277683023152398, 0.03847410604682254, -0.09581451005575518, 0.08068003642709977, 0.697872319381229, -0.3559249535039916, 1.2218175085319136, -2.064008520406761, 1.1951777492162836, 1.5001206047449123, -1.1292023575802872, -1.943293533112481, 0.8349630311843881, -0.05792099195584131, 0.07497095191751893, 1.4617094977176126, -3.799396888074312, 0.224886565452903, -0.3199064195609528, 6.7241288246849145, 0.3878849496797696, 1.3775687368088863, -0.5902190878269651, -0.3342517474076421, 2.046219420465612, -0.04946023008277928, -0.5822682890014417, 0.36181975945625316, 0.12087858185230668, 1.674645112867548, -0.7231283862186848, 0.3803780924291447, -2.0609656389999924, -0.6876521874897057, -0.00579895650629417, 0.03819269362385346, -0.009160545491076448, 0.0414793648559261, 0.03361920546748189, -1.005587488345888, -2.070655172970544, -0.6989695744179044, 0.8086378982295511, -0.64067147794618, 0.04328982106270257, -0.0023301156255201394, 0.07850504887862653, 0.113966491385257, 0.0012111235536118043, -0.633900626009341, 0.920616758941388, 0.5454733836660475, 0.19452969333493247, 0.8694989654947882, 0.9928268335639614, -1.83647511990944, 2.0919162700649876, -0.19500412167825806, 3.837458707086146, -0.007982304014884508, -0.04149650573417822, -0.01864491953475628, 0.04771718540226849, -0.03423440220212788, -0.5269719630212534, -0.69547515974969, 0.8663787707598744, 0.2245509170953852, -0.6812833068041129, 0.056636643109099875, -0.039642679990568475, -0.01982699384996127, 0.05980435865301825, 0.041118770155558836, 0.00010487752992035715, -0.059570691301493894, 0.02808299135466622, -0.03151863497416154, -0.04619424141049565, -0.3007722488313789, 0.27491743731709845, 0.4490824199239039, 0.43483367383884736, -0.07584821836455868, -0.029226320121850304, 0.0518463646725178, 0.03057202118463788, -0.030314207273257582, -0.033500831088546186, -0.5304902189761753, -0.6299360603091618, 0.2768396302513244, -0.1887408044839727, -0.9512418563700489, 1.2128400140879172, 0.6001674607731138, -0.541851089655998, -0.17348089005572556, 0.7503233511042732, -0.7491610385406038, 0.5731775794861734, -0.2938182258148206, 0.44696962393281814, -0.4554027343717935, 0.06135356495818402, 0.11176010180789678, 0.23103345857517404, 0.14487294542340867, 0.3666241890418032, -0.9254856767295426, 4.267691753605955, -2.532100233198771, 0.9567955781762254, 3.2723021071495526, -1.7353535408970633, 0.18656227813374687, -0.5163419256467551, -1.0878480650502376, -0.17079655393137258, -4.727893353430478, 0.6737953863485717, 2.741114813239382, 0.9636113059755683, 3.9759989477963007, -0.48809944542025185, -4.0886448053914, -1.4783992195392834, -0.9230293046620887, -1.1263171350210595, -0.23284769999851376, -2.5666345540085493, -0.21577155245019963, 0.9740584152737614, -0.20259249246349198, 0.07123450443764426, 0.006020364404658532, -0.06039171441804373, -0.028016763704815775, -0.02863919716839169, 0.03625211105656206, 0.019189650440610495, -0.005969551150606853, 0.043480361000169276, -0.026424820858913456, 1.4112064609412684, 0.09666251198922018, 0.45366053275311025, 0.47755542462698186, 0.4709459419542421, 0.1043534190606178, 0.8580287275855012, 0.01485999805933104, 0.30321541383188605, 0.8218262587617261, 0.6865599511343018, 0.6215745036240924, 0.8983164969363605, 0.2719083311298797, 0.4790668091967477, -1.350071902183691, -1.1385005340718644, -0.5421707823375438, 0.3643630598011742, 0.021543430073604757, -0.03751086450339189, 1.7361780578022448, 0.8541371134749693, 0.024457003113974057, 1.5574821803085224, -0.3431265999875379, 0.79405283775829, 1.5315860347156702, -0.35146023914802055, 0.15095099083028674, -0.020800975785450506, -0.5924370583528397, 0.02867286595727883, -0.208484552623939, -0.0556292061764905, -0.00840815521999827, -0.008123208578255188, -0.05068904291052483, 0.039820639711901834, 0.07070212083691306, 0.012157404888971641, 0.03661676368738578, 0.041903394035928965, 0.04639928904953397, 0.015167837567955833, 0.010612863999120002, 0.04320036360103951, 0.0034416162801391434, -0.04869591968824767, 0.0011924177227965807, -0.09442076957697211, -0.00029501193775475967, 0.020668616814874963, 0.06179903881569763, 0.007563863869854608, 0.04640699105907749, -2.6875709570420747e-05, -0.051173817302340496, -0.0705689858859647, -0.048486718906863964, -2.922629847475848, 0.778120711990974, 3.1183978842667677, 3.855206231671613, -2.1666182995570504, -2.7511265986494116, 0.785215426095673, -0.48332876113454254, -1.131675283299906, -0.41175619520624973, -0.08106560378704705, 0.03376085727004358, 0.05943973940968035, -0.0003214195637098655, -0.02465961092245008, 0.7392137442197798, 1.892983839628861, 0.9823754235868155, -1.2570384599559623, -0.5985697470686939, -0.6969380058392142, -0.7589702892673964, -2.7237837660136233, 1.2511182540514703, 0.8056141073851558, -0.025605995432715075, -0.06540999634319326, 0.06899742268481929, 0.05140000751453514, 0.039908316556972696, 0.3686947489692891, 1.0339390885830941, 0.7498589262188122, 0.7329428042110682, 0.06587821405899924, 1.1489743424057306, 0.8297591163594937, -1.1781775711099582, -0.16735990058788416, -1.2083794230840523, -1.609790239530437, 1.3441599882324475, -1.2564328229669273, -0.5547182051851254, 1.5886100768905531, 0.9707381014900703, -0.06786934690059786, -2.5490417543897808, -0.5731672902962505, -0.8581361325347396, 0.8387912491971379, 1.021265035856954, -0.08746320612918349, 0.06823498637481365, -0.07150078538541665, 0.4180993425317429, 0.23954234534532734, -0.0012641047635571507, -0.17098151071967285, -0.11607293783569948, -0.02531139795940475, -0.0669654088909626, 0.015097388489430354, -0.00874343991042519, 0.008315752516943097, 0.018772866628003242, -0.025515983579722762, 0.021078818624622672, 0.0868848286571606, -0.05538997648625828, 1.053446421644948, 0.6548052823801421, 0.7426356610149065, 0.7616966886819764, -1.092406834884984, 0.782644565848448, 0.3254376066206932, 0.5866153903337685, 0.5308673472519881, -0.36899270966514325, 3.2902965267099273, 0.06535350151054539, 0.2749556266375253, 0.8136217438883346, -0.3730449256716815, 0.4762579978212867, -0.4788833676327153, -0.76747511254519, 0.6390860827208783, -1.5637246408739973, 1.3283313994585324, -0.33069323740342443, -3.6426069591926673, -1.50192729008151, 2.1524288609405264, 0.6513303280275698, -0.6428372119893813, 3.461830402762385, 0.19888969826192904, -2.7833850577429753, -0.5166525720164261, -0.7475550607140541, 0.41776597718056274, -0.9574370081536653, -2.5160279492317845, -2.294473290595051, 1.4661953187575718, -0.23724748272523444, -0.7006438651946163, -0.07435810367839552, -3.544879599678845, 0.11422757024659577, 0.8469245436361923, -1.5457185784306717, 0.7583683201207415, 0.09334653254430474, 0.4752282948069862, 0.43654450877493683, 0.3146479846102994, 1.592809801791617], "hidden_weights": [0.007871095215649422, 0.05311693470809155, 0.7771989981354135, -0.6255492889341252, 0.09258911681797657, -0.5606999194902973, -0.7126643548517406, 1.4776617855735577, 0.7291609395404817, 1.1280341660565945, -4.435002537863186, 2.636927726375425, 2.763593758383754, -0.4377920793041285, 4.257592173577442, 0.34862926453969806, -0.5835195911846963, 1.3288221980871067, -0.16435277198499837, 0.16870390254584167, -1.1378611459018015, -1.5146485478125944, 2.301265815782904, -1.505565621431311, -0.026807637418083636, -4.119921581306652, 0.41727416279943247, 1.5786482639884505, 0.6174016658046491, -1.7474877858443105, 0.00845133672386383, 0.3617322412160003, -2.374900076186144, -0.3723236776158938, -1.4770781222841352, -1.3390299630061269, 1.0122468721405609, -1.705391724147219, 2.238718395601386, -1.0211692401810433, -1.7988096085749523, -2.2247655526260104, 0.8869000906912337, 0.05734646632862989, 2.412702826365955, -0.09715972652755933, 1.3334335598906877, 0.3811595947310553, -1.4706925251725942, -1.8586998079709864, -1.9113128323273885, -2.466037387749843, -2.3699866877312363, 1.0731682840401466, -0.17739004767450867, -3.501843893003001, 3.1795025678718947, -0.951934497526941, -1.1625488224522367, -0.35949785132693757, 1.2893578739011307, 0.25335817255177256, -0.17931600618623844, -0.07310345369292247, -0.6571768385106594, 2.95380443846153, 0.029857656770172224, 1.7807302836306445, -0.2555889857475546, 0.41696744937224883, -0.5789582941557281, 0.6309404196656845, -1.9186497146338495, 0.5297356453385832, 2.7367298259434714, 2.4427710768865074, 1.4722513338300949, -2.291687756621525, 0.37781143581184695, 1.7936335399278458, -2.634889946109837, -0.13998926729540206, -0.9114157341929575, -0.5250718426810509, 0.31935173091458946, -2.624900809783125, 0.5399800579821659, 0.7816153591077699, 0.9991765984789417, -3.373184166038372, -0.9049732626227065, -0.8575667478908505, 0.035234096733909544, 0.9747624703177781, 0.27349518771790055, -0.11863036401779606, 1.0443318422396268, -0.5281971200766156, 1.2738175994138876, 2.423578736425111, 3.7213313632690523, 1.2321372885320676, -2.072305318729157, -0.03698934636778519, -0.8844178559872214, -1.017179047226896, 1.5423622834136697, 0.752154718985256, 0.780826042981081, 1.0240340517405047, 0.3549733277841024, 1.2460388459427887, -0.9718548296609456, -1.763049953163674, 1.8164761696380762, -0.29311304563542095, -3.065608407796365, -2.27004999272, -0.6660838641347809, -1.0176513261773372, -0.7984622616660979, -0.18321368844867833, -0.9826889322318556, -0.5351372197646903, 0.36762911403672016, 0.1940087945269461, 0.24304487874672864, -0.6688179069074683, 0.5806739066879153, -0.813011109555169, -1.5870805357869164, 4.541364659905493, 1.0576228268808565, 2.118199227478198, 2.2275620955274134, -0.5020651682175564, 1.085446483798199, 1.6846167977510458, 0.41958886012994123, -1.1661857245068437, 0.44465432538303884, -0.14156831696858613, 1.0475971006878813, -0.35751318147133515, 1.4659828168155231, 0.44788001982139225, -1.6197267086120402, 2.451015495340927, 0.1381354592079107, -1.0590230128415863, 1.3552859620199214, -1.17465771905615, -1.6961270907866581, -1.2641414575799286, -2.2613055014056282, -2.030877079865988, -0.2853705116955117, -0.04608788096761046, -1.394639338992886, -0.5328992146388406, -1.5346461381507788, -1.942980778406423, -1.6153074284552529, -1.246054244816615, -0.24526730602131935, -2.9251613421347327, -1.1091670828199882, 0.04906400055105168, 1.5835901793041223, -0.3703211358034121, 1.5338772885066774, 1.6567267800246166, -0.14163541294528426, 2.0960341888562675, -2.6336271008366428, -0.011901424081930833, -2.1412854472196234, -0.03444547863969529, -0.2733941803043861, 1.7619691388966097, 1.5591384260280274, 1.4080046723644835, -0.9081422342305414, 0.6329851875191457, 1.5432330505354623, 0.6885441979023134, -2.0907568025513092, -1.1334917137205807, -1.0543828291755568, -0.4088296186362222, -2.100045125307507, -0.6432314656360373, -1.2541892222068687, 0.2848198380721177, -0.45982738290361536, -0.8911888068326917, 0.8687796950259471, -0.24120529217627576, -0.37038019976440706, 0.06452332128085882, -0.05074942566676985, -1.905882936026557, 0.8567245813991824, 1.598840047845263, -2.5999314136149447, 1.3263554234210142, -1.1690533504740512, 0.8477441026052933, 1.6425730226436583, 0.7865540144505642, 0.2907126783003821, -1.1587112956035766, 0.008743055884918981, -0.32280827925746797, -1.0991916998883637, -0.32387009316085985, -1.289786083100733, -1.39615082588222, 0.7154310554502464, 1.0192091745748, 0.87060651785329, 2.2141426486670066, -0.9776871446078803, -0.006896652837901693, 2.035829486406748, -1.8905331274780288, -0.8141658688265812, -2.615088123686117, -1.8140576527543182, 1.9664303491758368, -0.9989022157967641, -0.7227804853764447, 1.9845123168700538, 0.17287868696394842, 0.637258179445857, 0.6532001399229983, -1.2535893341191509, 2.2257556376091876, -0.20732586692119523, -1.5585738760574697, -0.6110258558966719, -1.2866411798123767, 0.75304965351149, -0.5162124327927433, -0.8234093640650911, 2.0399105187139694, -1.8077497454033373, 2.4011672078492343, -0.44398518958660416, -1.2458752269742606, -0.27900228685180806, -0.6161756700052622, -0.8277817795162702, 0.4675173471676525, -0.12146317342760349, -0.15650198837724172, 1.1063076202348427, -2.485717360781977, -2.7149411184943175, -0.5437614439146287, -0.48719404585545395, -1.2444281398305501, 0.4012618008119808, 0.754516299003338, 0.4133541620376156, -3.1214280645164734, -0.4173428470232933, -2.2859166408337575, -1.057773667986997, -1.8647392414109436, 1.4591604319967586, 1.386945281004348, 0.6861608799379815, -0.4505223445604276, -0.38421325675279994, 1.837820231011794, 1.878222611373013, -2.224649204485608, -3.0831187258613704, -0.4204741243744073, 2.394517413376971, -3.8637439427309013, 0.41121878886072777, -0.14164668501698785, -0.5672559319073547, -1.4509505067239574, -1.6433180254775193, -0.577195908123145, 2.2110466980789947, -0.3491442423365608, -0.5791740673368475, -2.9900433158114788, -1.991740631329713, -1.8370822700597251, 0.7407311675792514, -0.3249100648271254, 0.6540430305995732, 2.9738337783133058, -0.7198699383221746, -0.5967853043396484], "hidden_bias": [-1.7246956426895148, -0.1809196097705498, 2.4502426113409888, -0.9691520332501342, 3.110205059618442, -1.1206847322195042, -0.19320029826905433, -1.200591591740219, 1.0184158962939942, 0.1319232628213641, -3.334597668254112, 1.8853595834952321, -3.3884512642647984, 2.1942678355180902, -1.9600172182307924, 3.1435889022258885, 1.9872366988979444, -0.31909752186796375, 1.3182928043119089, 1.1376232500520338], "output_weights": [0.0464599358301791, -0.053686640335003026, -0.03500446070390208, 0.18782718356383477, -0.04646291609806832, 0.07968418975575987, -0.010827801903899648, 0.2192819237830331, 0.0864266041058974, -0.19820964357578222, 0.2127368458067348, 0.005460918283423374, 0.1421143380775808, -0.18790116169321322, 0.1531267723400854, -0.17354282980227365, -0.2781668691590552, 0.12934208544965126, -0.20938207178680948, -0.12349352444693237, 1.1091645122881182, 1.741791850722963, 2.569833360909577, -2.523233432481046, -0.147182075852182, -0.5421581739920316, -1.9810595705483147, 2.3260290103330172, -1.9985216050212686, 0.6797647237289458, 2.2162206640552973, 0.4344631770233361, -0.4863095239356687, 2.5684532009948877, -0.30776964298265047, 2.5386468925184498, -0.24050513819924574, -2.1288066918309623, 1.5286175543373044, 1.152297390436003, 0.5421492534822929, -0.16706984354399176, -0.4680746910580132, -1.5779461275691982, 0.35981100763468327, -2.7140891760402712, -1.042782994012938, -2.0843910964404624, 0.41659863070192177, 2.563438849016431, 0.35228482446652687, -1.5531551983533565, 0.6170659868095819, -0.5722001136708266, -1.1272342845868963, -0.9757928938403085, 3.0654265647133316, -0.4053547428593166, -0.7690136599071035, 1.5905198976175465, 2.491494389086363, 3.317411680709694, 0.8551198631912014, 0.47036453898281094, 0.8851459843527725, -0.007270585060825205, -1.4636440402218915, -1.5601682501619998, 1.4268121462196997, 0.7079215636498253, -1.0826455856795287, 0.6811959612697696, 0.4036681198337088, 0.23020020225505863, 0.05334357104058415, -1.1534968150471676, 0.5859006070205681, -0.10557224402138125, -2.405813385753887, 2.148285927264552, 3.730036093676039, 2.2864455912744357, 1.1640375401927696, -0.3003438641493489, 0.5802166253814253, -0.5769087189810651, -0.631453073522425, -1.4621857840994843, 1.193846445925071, 2.0642189757061145, 0.019437935117070287, -0.3605360262638662, -0.561579291344084, 1.247908447602766, -0.10263685955568613, -1.0594838606184775, -0.5086442009875609, -0.6433145671105797, -1.6220375923978898, 0.8365735960839127, -0.7446685398289208, 3.1480813665643725, -0.5105743744936473, -0.5209474590033436, -1.098570734679687, 0.1573660577099938, 1.4640234300347095, -0.8420279352564524, -0.2893244294634683, 0.4003605302357322, 1.1752725867896598, 0.5976498015007046, 0.13894220206214092, -0.02266855415560233, -2.8404185635168138, 1.1860348149726783, -0.06764384433057666, 0.326067074739146, 1.2404690837616048, 1.394493205523479, -3.7215300066083117, -3.51664338309623, -0.6631784727511151, -2.553791604667529, -0.056885799502149004, -0.8672991468312464, 0.551206311242785, -1.5653428328112295, 0.10873992886203529, 0.23300621711186645, -0.9580287341112614, 0.4087921075306653, 0.9703454028044678, 0.5851926229667828, 2.533186572200005, 0.5050133974897497, -0.14051634158339676, -0.7013399008795802, 0.7934267441499094, -1.0443443577540894, 1.97718437993441, -0.5304487392241207, 1.3136521672175596, -2.6868325621663725, 1.8980682021601338, -0.9232274897042421, -0.903735475712877, -1.816194116553973, 0.47602371481358413, 1.3540555586158276, 1.0943177510925661, -0.021828173777133995, -0.5460314797493426, -0.015756169668260225, -0.8373444030629424, -0.18604804832312588, 0.36621311176697785, -2.2265121586753964, -0.2473666746947962, 1.4900063918577273, -0.3127894501030862, -0.8298578278810126, -0.10540043913583999, -0.2675982186661563, -0.6710294320240504, 1.0796345193312606, 1.0975017970732772, 0.773871167080959, -0.3085879929813087, 0.45290794491853315, 0.8711841783843183, -1.5904051865030895, 0.1263706178607014, 1.4651071916266336, -0.06319609876187303, 0.3632980545368348, -1.2472847293863158, 0.7774197307958284, 0.41205076850963324, -1.1354479878416204, -0.8910101914257872, -0.2612074681633367, -0.02443571276507052, 0.6419864921108185, 0.6749614131185144, -1.0132821116488568, -1.4058023173936631, -0.48772624272316584, 1.192763393343087, -0.6535547859636426, -0.5294803478660268, -0.2212983264048408, -0.040610018855585996, -0.594073705645116, -0.20781922609412914, -1.4949225934978985, 0.26148497720272135, 1.4606897709403661, 0.6281467753061789, 0.7758403654964805, 0.09685648390242454, -0.07197931896381982, -0.08059171989746897, 0.13067356784301074, -0.018892425845498852, 0.1479052756728556, 0.18395332681469984, 0.12214649200861097, 0.0823665666374136, -0.19170211641840176, 0.12584297676651823, -0.0965116086588747, 0.1676275453053757, -0.1329764095984794, 0.1261206307539539, -0.18604084348951158, -0.2229738908340277, 0.07574369229897544, -0.16241739833141494, -0.16199091697901005, 0.858339520558572, 1.8772196583909497, -0.7719838205857492, 0.0077842615187553674, -2.0194147096988475, -0.9317482460282757, -1.050283149077276, -0.4935442450570045, 0.6197815029660121, -1.537405052824486, -1.3111844196520437, 0.8106143935162841, -0.53459874451438, -1.262358976498798, -0.69685815546535, -1.3383021000725577, -0.28215316550543484, -1.0973464629605159, 0.6255131972346123, -0.09890525641510764, -2.403857979423129, 2.5119377500406155, -2.0771962083546223, -0.08000830933123665, -0.5913625975800832, 1.2761994780917394, 1.7143372097074558, -1.290012117946975, -0.38598412557971445, -0.5755382529473546, 1.2382745264867965, 0.7028170676289762, -0.5954627319346097, 1.9904611510922756, -2.0774081485558042, 0.01606696749327861, -0.2662488236445298, -1.2967209595966598, -0.27650033562875914, 2.7319283131314083, 0.8378498014522526, 0.20580787086684352, -0.3464201803992365, 1.5647996928401697, -0.2696049761403139, 0.5506090320518918, -0.2892170266860096, -0.8843620486827882, -0.424373417115571, 0.21417217496401206, -0.4167853311095933, -0.7648176370145017, -0.19130558316824428, -1.1743901922950901, -0.18929018101004175, 0.12513771484033384, -1.7033452590026141, 1.3971847919390736, -2.2240597622228884, 0.288909297819553, -0.6836589685004979, -1.0591177945639205, 0.8650384773548693, 0.1893952678533144, 0.7616926836570863, -0.08585089503645263, 0.7968579292302916, -0.636562966113863, -1.2660612367674424, -0.48448171925991895, 0.45295244749754693, -0.4306897708550652, -0.250752860656003, -0.7117281604245334, 0.5640954227080378, -0.20937871850047418, 0.041498235627586866, 1.4600727459260439, 0.47899453479659215, 0.2709554008991433, -0.9824462534009979, 0.9342751309922072, 1.1436670194273846, 1.2797794280638832, 0.7103686694469475, -0.5388345777458472, -0.005421493607857181, 0.40326673205012914, 1.0672465336923342, -0.7879348192746206, -0.8966880698041159, 0.6894283207499922, -0.6431922746118677, 0.45830490333363205, -0.516606565493475, -0.7047148056976227, -0.18499489159595592, 0.2555879302370019, 0.9827898290889108, -0.8657304752035124, 0.6873382629569584, 0.5635806514751931, 0.7009841106407805, -0.5583156949917774, -0.8507065430817046, 1.6399385408414706, -0.6338661770918732, 0.6222064952872184, -0.9125370824658551, 0.5280299743542461, -0.038616241059656144, -1.0767850029057093, -0.41616506808348963, -0.9731595380093149, -0.5079233663728479, 0.5322721853431035, -0.010842531898676941, -0.23082771567958102, -0.3578642476237257, -0.0152350500540964, -0.3406872819913987, -0.7905927981823548, -0.6669912221840865, -0.45159857907209444, 1.1375571900316093, -0.4936092328836283, 0.8510354590551704, -1.2039596933998369, -0.42270266435389725, 0.486813187983149, 1.1380317624267076, 0.47252043577379965, -0.3229720904776258, 0.16875885542971666, -0.3297589466864041, 0.7009608839313716, 0.002829123147736475, 0.6785315085275759, 0.5335467139619051, -0.7527596797455909, -0.0017471982297421575, -0.09068845031945723, -0.06425545679335701, 0.09310445057463307, -0.003397469408856268, 0.12739776441734468, 0.14838694580383097, 0.1810720687899697, 0.09302710630891473, -0.14316028431492134, 0.1896458748104029, 0.013587275467201222, 0.17917324498942278, -0.07310891238477232, 0.1967474080769385, -0.0985497428508567, -0.31852667900618115, 0.1274162886168706, -0.1051314256834495, -0.14787574590200456, 0.015265186861377754, -0.10323777094170337, -0.00678977217195996, 0.1547166309107992, -0.09870656852739902, 0.11669256025959923, 0.10461256679851876, 0.09850189460578279, 0.13335760301400396, -0.1751148352081891, 0.13879845124903537, -0.09599584145395701, 0.1660566009119953, -0.1375939928505606, 0.09797031997235421, -0.19762268257335958, -0.2504921796081586, 0.11153591540112852, -0.16428887365517178, -0.13576113797027478, -0.4687537769972874, 1.0801645633508095, 0.9065317046445803, -0.21756023272315914, 1.02144869675622, -0.9544702869128948, 1.2131765966342911, -0.2922915584393679, -1.2884437790506533, 0.6129433983349899, -0.9655942374826697, 0.9413856473976594, -0.07163770726596488, 0.21731911885981275, -0.025258771005839807, 0.800692800780655, -0.18193267407697228, 1.6956039224983057, -0.9804130916347846, -0.5063480707929094, 0.007177172921672554, -0.04977024807865028, -0.039447136969051305, 0.022085817493463066, 0.00622193823040528, 0.12393373734242533, 0.1824755977573068, 0.12993575535942195, 0.12478961585679407, -0.10112757700069036, 0.19479620141468182, -0.05674904526403209, 0.3004239976576222, -0.1558909486429489, 0.1627465015015121, -0.07489350226212066, -0.27690774044665484, 0.0421557932161187, -0.1805299237740389, -0.1278258877636092, 0.6202133671650217, -0.41314373678718014, 1.1879379575313305, 0.6193352878465035, -0.5122630752131958, 0.6661977392688233, 1.13111730404052, 0.9074890972765174, -0.46855128356581743, 0.3527720069290411, -0.49309402536560787, 0.18063905876502312, -0.38953672696108677, -0.6648996523336481, -0.5287421676800581, -0.7257482884575084, -1.1082669136946695, -0.5655519142896833, 0.46083936921126506, 0.3482572692190897, 1.5280356167848939, 0.26379316565823574, -0.6194308059787224, 0.09760910449974877, -0.5526893560808707, 0.6674600463342598, -1.5247512241955077, -0.22576671171979032, 1.1293618263849772, 0.26621091950244385, -0.632624635782677, 0.25706714942542097, -0.3446927930180475, 0.7874375990849328, 1.5902807786663753, 0.6893636167474458, 0.5408965780689551, -0.7501897767020008, -1.109581038449123, 1.5885181522234388, 0.08295113079064632, -0.17060585927951608, -0.11505654280569962, 0.1343173449088182, -0.020085998833713738, 0.13912478135429576, 0.0895113843538299, 0.13239041039932645, 0.06818655203616494, -0.16901186038573102, 0.10972441388091282, -0.07352589184368997, 0.17793125322868714, -0.22306541070123329, 0.14075105973763474, -0.12207440660876494, -0.18241353582646128, 0.03930387823709297, -0.11239455435765469, -0.22890240220582866, -1.1484727616269557, 0.4672104964194113, -0.9410364824698597, 0.26067621926176926, 0.7893517010196718, -0.978602193889449, -0.22789564731658704, -0.07008913074761668, 0.8226796608047677, -0.7098204338646712, -1.08347192776339, 1.0501991001036235, 1.0870384294030782, -0.021221786152219684, -0.2633754046425018, 1.7074624514379744, -0.08934045908171326, 0.7924995352670665, 0.8308894366507164, 0.9693048811459316, -0.5727985247431071, -0.012524589514976921, 0.9482275735820019, 0.8462276988036105, 1.0883682349865356, -0.29894842202250055, 0.5541432367790947, 0.6745076583131734, -0.36139685990409287, 0.5481421703684087, -0.48847598108900747, 0.6105557686753665, -0.32636673743292544, -0.8682577027703192, -0.23045954965399162, -0.5640070065097327, 0.06933176291109465, -0.5185597103655655, 0.4380510988892781, -0.7410978738315435, -0.6736243141430441, -0.3672062303259249, -0.8357028540701155, 0.45346336895620165, 0.6108596406068624, -0.5248731124298378, -0.4221363598820942, -0.3144066323802867, 0.7317677478409477, -0.5563586912695027, -0.6659984440854664, 0.7245279068295717, 0.8353832141657166, 0.28635541954886756, -0.10745401122423932, 0.8517582868421765, 0.12527304957618263, 0.6902491562399095, 0.5784764692983568, 0.5455129237805729, 0.024876046125971538, -0.008256390373971217, 0.0026663425371260016, 0.0847193320412365, -0.005883853151629796, 0.05933325317907618, 0.10750532204672765, 0.10275571237239496, 0.01507303270392459, -0.21585106562251064, 0.2224824384324776, -0.1126954204782696, 0.13178737045672972, -0.18825126689538563, 0.1899322462975083, -0.15526847508429048, -0.22358007129628832, 0.08687339058041305, -0.1739431669103441, -0.2067098736873344, 0.0888170852127628, -0.07506901513346415, 0.006237849828451621, -0.01375475160033404, 0.007156896901652278, 0.10585003695147101, 0.23018169648439138, 0.11842282516790797, 0.11861877930122935, -0.13176466356170966, 0.14253622949109135, -0.04181166840893036, 0.125956019030244, -0.08923218565436808, 0.19595704575386927, -0.134431106491723, -0.28201589751458606, 0.09653842555228828, -0.09705893407895602, -0.2516562398538593, 0.008864129719632251, -0.03247811115463639, -0.08348487233012669, 0.16115955419221686, -0.05528610700103878, 0.12868718401647217, 0.06803457313081508, 0.1604378615727263, 0.14006434802083872, -0.09906083595795216, 0.22595292718880114, 0.0044808142877513675, 0.15866330462487488, -0.18004634307306372, 0.20427765034338774, -0.20781915913962556, -0.25824602961880166, 0.12604977703140421, -0.10121920309383656, -0.08631161428349152, 0.047318463510636725, -0.1498706414295028, -0.043374745862319625, 0.10965448764422954, -0.057648378689156766, 0.18185526227201299, 0.10604631653991052, 0.07580151480069358, 0.1255688214101355, -0.19667115874421398, 0.23431003284817814, -0.04250724671496956, 0.07685684295770773, -0.0767499392786987, 0.24821677902561123, -0.2363473700896456, -0.19388201680047537, 0.1074986478192545, -0.10909146328104685, -0.13742218742303577, 0.06343833400550963, -0.1114104255534424, 0.03558577571374923, 0.05249087514102433, 0.05035650749157707, 0.17972632478168166, 0.07270570861412268, 0.1431661755192931, 0.16823582629183625, -0.1652907685440137, 0.1572151087362139, -0.08319060975407151, 0.19491963140071455, -0.17504593280085254, 0.1440687837779161, -0.1257989857305282, -0.24104817128656988, 0.041757431620120584, -0.16615426417511722, -0.2180756138140741, -0.007272610617122914, -0.14708045308067985, -0.05698816400013455, 0.11868721350414964, -0.03763079985281177, 0.07790840506745716, 0.06524791557052427, 0.0898909591880145, 0.04431415205175014, -0.20398460882375158, 0.1862951881087457, -0.12078332951651012, 0.14604361591621662, -0.15108247028418506, 0.2509475772480806, -0.22111784011603483, -0.2275040280026089, 0.07229139050882984, -0.16102850696329302, -0.13952939456792152, -0.6305116409394864, -0.5448449086943682, 0.7706381959099096, 0.914347737474844, -0.5747700931583913, 0.7276959043847192, 0.7004992756039403, -0.04869517969045679, 0.7456738572441857, -0.43738228414872976, -0.604864452995426, -0.06855743955455258, 0.15995430952141532, -0.16361894605522184, -0.3949763794388571, 0.5917733386582124, -0.7951594520403945, 0.8716366942010331, -0.02397383448266076, 0.7701284283015716, -1.846214836285155, -0.816145863684362, -0.7246393054985865, -0.049181044579859334, 1.1466296789091528, -0.08503083104079244, -1.5715828053882888, -1.4516624824358892, -0.30881030800325904, -1.1751202683477064, -0.23377436466794205, 0.18003044989361938, 0.037782607789168636, 1.592986605514522, 2.079559940975609, -0.9356469056650104, 0.08114888127562615, 0.16833446905284719, 1.960119299887904, -1.644238289204119, 1.1244710114152445, 0.6968530174398379, 0.6170250087930375, 0.8324809293991925, 0.34060929792666833, -0.32000806765797346, -0.7268127568068379, -0.06506424758908864, 0.39882370890168434, -1.61599558023959, -0.8304371845801604, 0.47441232618163354, -0.1162680413568568, 0.3505188986317739, 1.5208842920421564, -0.8489274939898008, -0.04038705452996657, -0.7674666405463331, -1.0734755805786584, -1.0238486585228683, 0.2549737783213253, 0.44793657341473, 0.4737402175116098, 1.115765072705981, -0.6994868014023573, 1.3451059356195045, -0.755520181910785, 0.18643705934448357, -1.00955186447599, 0.39877363570388963, -0.06167633316515477, -1.279273008507728, -0.09522976312279902, -2.04734720051134, -0.506382472412944, 0.2954002641185739, -0.6522563105989708, -0.7713504880330606, -3.506536780294748, -0.2657477919065334, -0.7989259527008956, 1.0009385402901512, 0.7236598792584634, 0.559447923428324, 1.3613665138424778, -0.08359408189232265, 0.2778251738260162, -0.7138747902471568, -0.30343024246390293, 0.810448639824903, 0.2877819473798997, -0.009939347995670082, -0.5627874178813683, 0.7596733650177478, 0.45171537081068625, 0.3451296123844244, 0.3077410922825791, -0.9256577568056903, 0.8429539118514418, -0.740123484735479, 1.7064795196564964, 0.5533989117187161, -0.594173370286357, 0.15325628795470903, 0.3320298910572752, 1.0224053858113593, -0.8015912698598089, -0.21874626036968506, 2.758410496893568, 1.5854876054736928, -1.0459918519305187, 1.9591606408314983, -0.44598487767982664, 0.0056043930142589205, 1.3982155799749694, 0.8218584719221527, -0.6316926551359777, 0.48659923436854574, -1.0867137258839001, 0.933701302855664, 0.002235973476615872, -0.06951328615908668, -0.03837695510943158, 0.13878718853362293, -0.007788680956068535, 0.08085685092611679, 0.18291218632484413, 0.09404487520008667, 0.11185667936978476, -0.10564112194724269, 0.2566981717368818, -0.08453726272665468, 0.1890446879055965, -0.11898026396178582, 0.06966968670117174, -0.1921470277358591, -0.29655804846018313, 0.06734062649357736, -0.13898932734794991, -0.1506850251333985, -0.36150801011158307, -0.6722350792959576, -0.12480859721143867, -0.3745820996678046, -0.506498063198143, 0.8683068697631796, 0.8330829952698587, 0.7193865081188136, -0.33755428912011004, 0.42256709131960657, 0.7246878670445086, -0.8842341030613103, 0.026846544677168384, 0.79185568240317, -0.31589111679856635, 0.3755791968080947, -0.9028243679402596, 0.7043466802168828, 0.4423529208120222, -0.8361920648741366, 0.8365897074582652, 0.35185879701414574, -0.8564789237702921, 1.0615675611573585, -0.37878269186089725, 2.0149001679591523, -0.8222322620621834, 0.9801250488229513, -0.2828915606149525, 0.04922604009463135, -0.9570408276445452, 1.6731506565805196, -0.22288798385319888, -0.9388647085840369, -0.4024249975531862, 0.7261536700158818, -0.6800581602128001, -0.0484889558766256, 0.8630403372293389, 0.271416619102523, 0.026634871013166493, -0.061673057541968924, -0.02297416346465814, 0.016873581900447705, -0.06481334602257106, 0.020804724790682984, 0.1765439674731274, 0.1671743283462352, 0.0817654560700221, -0.11701153795446895, 0.2814651881720202, -0.09474617686339537, 0.2122939083468637, -0.1109238452026423, 0.13639937688000175, -0.19950358790903333, -0.2595037188421492, 0.0748463096591747, -0.22651198662641203, -0.12231494151605286, 0.597860447600458, 0.686680152858053, -0.9016686911622876, 1.047130762434697, -1.0286369020018735, -0.6605934353927825, -0.40872941330570334, -0.9854784668974389, 0.24839680134155315, 0.9631728788608973, -1.3117160361781375, 0.8920690666696306, -0.7740125008638181, 1.645332620296186, -0.014763321134141465, 0.8179253753446969, 0.3330400160639684, 1.2249068524083309, 1.6230394949934965, 0.2757566431523586, 0.01349767211561336, -0.10325983009728251, -0.024198781899794256, 0.15063430312224463, -0.020572326649676405, 0.08350389014286276, 0.1408787186720807, 0.17328102689505676, 0.18903160263876947, -0.1439203858448392, 0.11899238364966759, -0.07156992748317391, 0.1185667575267282, -0.08530566061466886, 0.07527748122858853, -0.1357576398044531, -0.3008870829957293, 0.15672112569276878, -0.08413410843032033, -0.15277225494668986, 0.05993551690499838, -0.10607350414219144, -0.0023803940471833875, 0.11572412149692575, -0.008237318404380323, 0.11875073445578295, 0.02319730504483208, 0.13181953564228388, 0.18330511252705842, -0.08330670850949862, 0.17882975281691685, -0.07225345877175499, 0.13295175586806693, -0.1198125068421317, 0.17877450547036863, -0.2094364414820585, -0.216748860390449, 0.15126402098334601, -0.15902850226922835, -0.17008434788795926, -0.17385432572129272, 0.6538617293059727, 0.8750998151573018, 0.7155070246731187, 0.556421636567921, 0.9031537711853077, -0.4467554929034598, -0.40703205387410274, -0.29795463785475085, -1.236600151764815, 0.5634592345198748, -0.7962079342809617, 0.10860096586492822, -0.32826622641867265, 0.860784994094787, 0.8354589241906236, 0.39054583631512635, 0.7472232519525446, -0.5348323768734523, 0.5407991512619255, 0.05410807737459215, -0.024224994289396933, -0.006809235368264817, 0.1662777345444413, -0.019998042365072667, 0.05865956383579239, 0.12984191956730093, 0.1692135215727063, 0.14118249345128814, -0.1727587916157571, 0.16966836149246314, -0.05432059434842006, 0.20462527362611652, -0.09077038285171789, 0.16942862762983552, -0.13197902175102333, -0.28748315026793353, 0.04128769684141418, -0.11994161313144076, -0.11451035812229732, 0.5976045107985448, 0.4338319020664833, -0.5159942007360954, 0.32805819735400193, -0.47847023208686634, -0.3236194193242036, 0.5172083691440403, -0.40353739757520624, -0.2742611145314851, 0.30408394205338957, -0.2031001744765689, 0.39125634573198476, -0.16680163029365294, -0.6446605559502608, 0.6149701052854882, -0.6259133769800155, 0.17409782492381368, -0.2291462628222049, 0.22338800194958583, 0.22547640497329707, -1.7396415550570328, -0.8955175574775112, 0.14996270318997595, -0.47901258240173855, 2.4218770385526183, 0.01090088730313109, -0.3510706123057515, -1.212868668453348, 1.7124102418270764, 0.4681941519504813, -1.0531308957121024, -0.050577663363213475, 0.5581454556610879, -1.0654698058705065, -0.6272958358436808, -0.46645864852516483, 0.7639675376395604, 0.019388746223926282, 1.1215996067479652, -0.1942918669448363, 2.359215266386274, 0.9123077705323805, 2.1599133729736555, -0.9576887030467182, -1.106559232691975, 0.7193467016715392, 0.49686155227693096, 1.2343624671384816, -2.587213953815458, 1.5654793337184914, 1.0164124907014116, -0.15285783837956063, -2.358589682007828, 2.4765536112297957, 0.22346562416712126, -0.7572253509880887, 0.08855577128663768, -1.612488094295217, -1.4466581895001158, 0.3292083709041141, -0.5569530262821394, -0.7122101826124739, 0.7637177268156963, 0.5119943412684004, -0.5890034256193144, 0.9016702625061789, 0.9472574389940502, -0.26519751638789396, 0.9282514397182952, -0.5348929462011728, -0.46503749098184655, 0.6568473623802601, -0.5216031811971173, 0.3752232346508246, 0.12217380075513452, 0.4571178607032574, -0.609447556133404, -0.6453407638646297, -0.9523111801511778, 0.026803371514922063, -0.030812048542186374, -0.6071192312531993, -1.7912942133837302, -0.18676320507618088, -1.6406641084530602, -0.45380477184773016, -0.7649992110399485, 2.3829821322709948, 0.7801897561975398, -0.49348013975829585, 0.11658124911269667, -1.4790762549900003, -0.6765512953668856, -0.006717693002210666, -1.0609994881687015, -0.6966451102805057, 1.7878526489127868, 0.3109086808103329, 0.7486591100787573, -0.5539286410574044, 1.1869403460225771, 0.7738276485001278, 1.0866844710062402, -0.9688517635438528, 0.7561367154500872, -0.5693118552914805, -0.44792985691011306, -0.3176052669772968, 0.9179059252846714, 0.9769999691134604, -0.47100976373133796, 0.6049309045921057, -0.27201837422671454, 0.3407135166339004, -0.12978891583967464, -0.9798482424504068, 0.0073663245924379395, -0.503773307386873, 0.9549985478408646, -0.5945124246399847, 0.765850945157404, 0.13340500614311093, 1.0709084158115973, -1.8363633724341455, -0.4466495453782602, 0.6187503677544047, -0.18565023169260086, -0.19548664248324077, -0.45501210584252844, 0.42086811782829, 1.1623239379236854, -0.6772745334272026, -0.1180608998754922, -1.1133387518608902, -0.09573490283388715, 0.04077629656705147, 0.6685323423362202, 0.7484982824843112, -1.6333905754643496, 0.5741085578761417, 0.0710401023490324, -0.1124031228966314, -0.0341947434175307, 0.20436419720115634, 0.032222287659533465, 0.028065913840455235, 0.12267729516177689, 0.16917892014643846, 0.07364897971375499, -0.1816590156850806, 0.17393971100313724, -0.054636458992528315, 0.16023515209279318, -0.12164036625007502, 0.23094673409801195, -0.16733097811039965, -0.24639300964143704, 0.10626416959999896, -0.08331891265297173, -0.21639452190165004, 0.09457591533847198, -0.14823033248566383, -0.02973500010502075, 0.08926361136916602, -0.06057535443383438, 0.16524181781567465, 0.013745630114450968, 0.09998289542463122, 0.07883079207207458, -0.11286707782840526, 0.2317653326215567, -0.015179297626579618, 0.21519344503156282, -0.22863651846503805, 0.15273515672517193, -0.21928001727115345, -0.252580213948876, 0.09698865361153626, -0.11834570055294424, -0.09951054097421434, -0.6270484613052809, -0.6518229369898556, 0.5925112185706998, -0.6015519742774792, 0.7497639533669582, 0.26891269894973474, 0.8415815909387923, 0.8980527085317357, 0.6361936558115796, -0.7241496060181645, -0.507687199060526, 0.5081630782290354, 0.8869616503344712, 0.40987651908262557, -0.3508865126403194, -0.2582413476443009, 0.4314489866261744, 0.724510363335319, -1.2305612141178446, -0.3084431875849068, 1.8016905809876833, 0.377638704362086, -0.6402763366566847, -0.16226387637261994, -0.8268938728933433, -0.706807875810999, -0.466359342766224, -1.749128178191028, -0.6108278044130747, 1.7236939992719273, 1.2129176628446963, 0.4185583374594337, -0.7363209931595602, -0.06486528120411732, -0.20959372579411478, 0.7134572514558561, -0.2998527000653388, 2.3783288962994895, 1.9735075293933473, -1.920313962691225, -1.442728164484615, -0.48343433717238643, -0.6669027931203833, 0.5757842716458295, 1.664228176554051, -1.961821104647476, 0.8585694936725385, -1.2593460740634856, 0.3508294058069712, -0.39408312921756306, -0.6683361481377779, -1.352629848090478, 0.3018577847475622, 0.1370164520765845, -0.225079952500535, 1.22003835249381, 0.7734430601264385, -0.5487152371810088, 0.16047041891535, 0.9320612404624166, 0.40259812397704253, -0.541623411731328, -1.0953892173664208, 0.09770587986919312, -0.5306001869655451, 0.08349176649699759, -1.4478585903901444, 2.249882898305154, -1.2752686760123766, -2.0421562765829915, 0.1878797090709761, -0.6480398001943797, 0.6067151633306477, -0.34684959167366286, -0.336171244693973, 1.3575392751975421, 0.9859119460311219, -0.08606789161229814, 0.9058894617687635, 0.7200085773458444, 0.10406086056011758, -0.10907379560815118, 0.029375223803234214, 0.19538115921111618, 0.05377253790116315, 0.10860023111904474, 0.07693009906240453, 0.16026514638966236, 0.10135656137279843, -0.2204757543516305, 0.189381277640518, -0.1025806843809446, 0.200702714737669, -0.08968234536543954, 0.11980305606163832, -0.14514572318883182, -0.2505740505930142, 0.05383888288923439, 0.021893226808362372, -0.21266660224621708, 0.5916584772846566, -2.469391648198917, 0.2470106814473575, -1.4347107041697647, 0.07631715679493652, -1.8964791601151085, 0.1173968457588066, -1.2728684786690967, 0.009085788727446278, 0.9063910144194083, 1.5512663575665158, -0.419757746209732, -1.1791156224028463, 1.2024939310107028, -1.4168069884429628, 1.4756845797462246, -0.614253419980391, -1.6498453902249621, 0.49273196684031745, -1.1147282698236194, 0.06260464454028514, -0.055122022340283246, 0.016076330845470728, 0.06966965624815001, -0.05043326826015812, 0.14674343842898516, 0.13649608834090124, 0.19197244868325003, 0.14142167746758483, -0.1685809155684566, 0.20775240503944264, -0.07633136810776268, 0.18413944063043175, -0.05235367572583123, 0.20057071285818956, -0.04577453864936258, -0.3038868008763024, 0.05523690952664921, -0.11627238895421968, -0.1712239407059349, -0.6565845276886673, 0.7621648756706838, -0.452288793375561, -1.1627453018155474, 0.7595893433193075, -2.0817272809358762, 0.6416287568278851, -0.7860357104758374, -0.4297815013944182, 0.22101806040498695, -0.46310156250189166, -0.6610817811668723, -0.10363991302401288, -1.7392725728406961, -1.0031101057537752, 1.1002856759867512, 0.09650944394423944, -0.9870433890226293, -1.9543272171047061, 0.825188908340788, -0.704777314962552, -0.5018579674789809, 1.0610219376467398, -0.4687377922076733, -1.2118119322707395, 1.1547480042476432, 0.5607850950679287, 1.531457219356281, -1.2528845745392216, 0.5239630428191996, -1.1179860380032502, 0.2807976044435356, -0.010855316277110389, 0.12934695420141476, -0.34618209756988777, 0.48158572997346083, -0.39282303360291365, 0.3528391792708795, -1.876724039628513, -1.3593244176378707, 0.7747298916155904, -0.1919055870240151, -0.7880636420766474, 0.8139371199040352, -0.6350285827687202, 1.2803643229226729, -0.20581547306715142, -0.792210520051201, -0.4324760975091858, 0.3061450296820006, 1.7343002018753895, -1.0402919016226553, -0.18917660238641001, -0.9290095405910963, -0.02998468521149247, 0.2138259941539994, 1.102475419394778, -0.2828605578459135, 1.5265656095618507, -0.12168127844811288, -1.3926331654477841, 1.4813051476604464, 2.3704951181622897, 0.02419796460768668, 1.1394096844229629, 0.011809546924699184, -0.7349074324669921, -0.5327598352379344, -2.4671156485718035, -0.7168012901279873, 1.4955146921286517, 1.0636455083550655, 2.3950844006928786, 1.0548571574761831, 0.7584392335499262, -0.5430145465369652, -0.5085240055119847, 0.6678509873564324, -0.8277996289358536, -0.08464041769852633, -0.2634576357452992, -0.6841479241710176, -0.5483756865065943, -0.1786368586938372, -0.7076605680809551, 1.3921359384281673, 0.6760360641324599, 0.7093721237781224, -0.3198338292969103, 0.20218641491087985, 0.7524862560442149, 0.7989105400265091, -0.4925496463788401, 0.6819109447218066, -0.2167955449468109, 0.41935870236283296, 0.5239221285767225, 0.8509819203313236, 0.4546080296581018, -0.9148916111406878, -0.7967822715589451, 2.0072014738621147, 1.6469068585507114, 1.5702866550184413, 1.5080163304944756, 0.82827552580038, -2.134180066980583, 1.4086446101379524, -1.4361419317790534, -0.6903006211800984, -1.0716721604008321, 0.48614328575218385, -0.49017684962081526, -0.7024346403889482, -0.18869428697625326, -1.3526418729217387, -0.9627880800419791, 0.9512914862512054, 0.9311479069276238, -0.6686001378487219, 0.03912397747376839, -0.05973885899665405, 0.0007345774073355235, 0.006806173600509315, -0.06967397286767917, 0.113519454700873, 0.16839198128472976, 0.16266801043339274, 0.1767432899497989, -0.16873915817274765, 0.1744744913098185, -0.08873818256047275, 0.13126000779942032, -0.1733541976537336, 0.12455295975104545, -0.16252015529212177, -0.2649616078129098, 0.09589721973270983, -0.19354503138418128, -0.12767682988621346, 0.2260104099162453, -0.5543461030674947, -1.0005972399672631, -0.06303325146892465, -0.55544375511651, 0.48155354986065474, -1.2023754759327336, 1.8103353966100246, -1.277981281260016, -1.7506696577651866, 0.21728460140636718, -0.43763856291282194, 0.6030239084829493, -0.09995197644554898, -0.530161269555138, 1.2353180621796938, 0.7942379199392734, 0.08376084036947304, 0.7503347658752738, 0.8452321294603647, 0.05067989354881426, -0.047189681104719876, -0.008236141789341097, 0.1472232920267764, 0.022411234833059058, 0.0792528718074595, 0.13010523435817195, 0.18159111445167125, 0.1555022721237638, -0.1319767536289131, 0.23639143223767137, -0.09303311689701564, 0.08933225335687002, -0.07739035209490641, 0.1466629170508635, -0.18225918882064143, -0.25071300307073074, 0.0779494739243342, -0.07912331205334965, -0.12744749825071855, 0.590465198710848, 0.1930550268434192, 0.8766641936828705, 0.708773696637002, -0.6929394967855365, 0.45524016727034927, -0.17364710204517772, -0.3464701822531304, -0.40411184647761017, 0.43298915339329036, 0.6742156755611979, -0.37850174744632364, -0.25226936657744586, -0.6898662299949866, -0.21930584420634655, 0.1468434526190997, 0.7128925338251847, 0.8423717397304863, 0.528749523326497, 0.04262773204821862, -1.1167255581729687, 0.005304476284452652, -0.5841146418051618, -0.7243408396771875, -1.1897373408801455, -2.340849389316837, 0.3680899800641728, -0.13477574020845023, 0.9282876049171522, -0.5917245147929595, -1.6285268795531136, 0.893784866586575, -0.8730934027188163, -0.75374442792837, 0.7177618711977596, 0.44859586700463366, 0.7035003316823598, -1.281119488938698, 0.7034989883096917, -1.0134689999727526, -0.0017852311872873024, -0.0006437267430561486, -0.032298402471303334, 0.13771199595669414, 0.034196954650554744, 0.09691776250700544, 0.12271696715591404, 0.1405308783226087, 0.06179384011511538, -0.1534409269851051, 0.2070994338481121, -0.06359011153691874, 0.18867959937123452, -0.11141130810202367, 0.17382616692101685, -0.17438142773165666, -0.20467920851623478, 0.06883371973324576, -0.06578778605924972, -0.18325216202660308, 0.5979651147664211, 0.4899230633152127, -0.5294975384379654, 0.32620931984701296, -0.5070600733480006, -0.2563766246223186, 0.5788372376666309, -0.3459277796772397, -0.32491295745996174, 0.15223525612340658, -0.2628954819922741, 0.44127201773386693, -0.17751333019761176, -0.626885594871355, 0.5506932271504378, -0.5698447197737215, 0.06809284500952555, -0.29471145395981074, 0.32680398057543675, 0.22475013782330147, 0.0927480856630678, -0.13612649461873239, -0.006078076109084975, 0.14146123012361683, -0.04814777119599278, 0.0897320714894793, 0.11713692597229763, 0.17630957338827707, 0.10548618361669242, -0.12513488580779739, 0.16546987743412753, 0.007735115674622638, 0.15840726261097224, -0.1432961823941649, 0.07439518889543169, -0.22116788296580686, -0.22571787704510735, 0.09481571648039414, -0.11013210446884446, -0.19645673635396596, 0.03962598288458609, -0.10227167802344359, -0.024500988004720715, 0.11893711710699384, 0.03623779707422616, 0.09955928727267484, 0.19080339982518704, 0.10199549653492586, 0.0982130885609344, -0.1987579366363554, 0.2338370219237115, -0.051939978057070645, 0.16059485734884685, -0.13677985201031578, 0.10070220552166381, -0.09796575794692858, -0.18993408586119478, 0.0902240096736854, -0.1287015762837486, -0.139491481718171, -0.41473003850125895, -0.6915999300439624, -0.19466823573642023, -0.389338591974595, -0.5778374934750022, 0.8970260968067517, 0.7686492072768475, 0.7074557175591513, -0.4052571823453201, 0.30165008281813366, 0.8142889876429789, -0.8711895062387496, 0.017518737427178296, 0.8014367340446337, -0.21650429662092668, 0.3406923387877503, -0.8800212494115374, 0.6345769008624689, 0.4549787385416818, -0.8359826079476362, 0.028533478148790252, -0.08585643083258701, 0.029420748064084994, 0.18167498400878593, -0.030298865819012668, 0.17311112713547455, 0.015728744088643415, 0.13797693489565444, 0.12969496129443095, -0.11639058137180333, 0.19074817452669746, -0.061023168576695166, 0.13406889645971679, -0.17797011340591487, 0.24315482020122844, -0.11291637122190545, -0.1875593921710527, 0.08873604295452436, -0.14549020389363057, -0.1492156170227852, 0.7352343372668262, 0.3763070648882599, 0.9362913782421296, 0.7610807432505474, -0.2410597293148243, 0.6598859853773055, -0.3958319984844607, -0.3818470344976737, -0.0022988707427147427, 0.04706006375365803, 0.5382635920283283, -0.5538238511672193, 0.14472360875217652, -0.342847989447323, -0.25909796256010903, 0.25320819174993225, 0.661808614716918, 0.8319298989356028, 0.619028932115735, 0.3302002418101361, -1.9091091105391307, 0.0697143032772762, -1.5192550544148695, 0.532059994146781, 2.3256697849748016, -0.39064784064359037, -1.024249816278204, -1.2355181175109815, -0.40397950673303906, -1.4708786365776265, -0.06768283040345788, -0.7733728677450067, -0.26754326383318533, 0.13415536730021438, -0.2192537971677644, -0.5867344982779282, 0.15017614882786365, 1.0108339660796195, 1.3829920669159836, -1.4509486283901867, 0.5196054293514225, -0.0400916239231696, -1.2385867581905423, 2.5209305969483875, 3.296232979055488, -1.6598726443260394, -0.5735105287366847, 0.33911257127234645, -0.9965512559940303, -1.2080333289644103, -0.6764089913251171, -1.2875781305374194, -0.8193665059893227, 2.0231187057906808, -1.2475548445868356, -0.21352416655557122, -0.5704255887777896, -0.06212992402446938, -1.051036070446588, 0.5446609438518467, 1.1007138815663902, 0.6795340682846047, 0.2138669951936072, -1.255089807758708, 1.1191360698193382, -0.8393191296426644, 1.026382316094462, -0.5227039294925168, -0.5906155841719429, 0.7636680151541562, 1.3318811305930618, -1.0465426872743118, -0.2732887966995029, -0.9004500927500148, 1.0719126649246857, 1.0577006352857574, 0.23020374797920237, -0.7974591177272865, 0.304669774649613, 0.641388033896179, -0.3128987301183822, -0.844768136280556, -1.1331659495051143, -0.8848294037160231, 1.5077006752200162, 0.6459049791337041, -0.38530000158421923, 1.576720690850196, -0.8305125799102524, 1.2151549568205362, 0.7120630877704646, -0.7683560759998473, 0.35983504229575575, 1.3431233513151748, -0.7094235757584143, -0.4093033330089972, 0.6242055418166986, -0.25942764947045815, 1.0277318510509879, -1.2205881908039338, 0.585345146176906, 0.28393262447806566, -0.4059479246809052, 0.5615737962705865, -0.4036901025345816, -0.4284895019126251, -0.3753728186091126, 0.7918818167710039, -0.2229656793064286, 0.07929591156912902, -0.2769416479378689, -0.5358173420409298, -0.14517698792819417, -0.5732494002848697, -0.20968273990287117, 0.3908399958414563, 0.228988648849394, -0.3502408117864883, 0.3016538479993943, 0.2082103045674372, 1.0015271404329606, -0.808876870464119, 1.5968744639609922, -1.065228222541195, -1.266869596437514, -1.1089277656569119, -0.14626503121795584, 0.5482748141505934, -0.23077887040585643, -0.26896911244490856, -2.6234113427797454, -1.2332137195368391, -1.0144689396040023, -0.054859416849813755, 0.22309518918852028, -1.2441239765524357, 3.7815003040717787, 1.95595072551531, -1.7397513164796803, 2.8385708028635137, -1.2173038906383211, 1.8821035864662983, -0.6954433172271883, 0.04643219714205637, -0.2860177994339818, 0.35583638579387045, 0.7984558861753883, -0.32954878763837564, -1.2120571087865517, 0.49320340055076634, -0.5089232308144362, 0.2967541736688868, 0.10827218425719465, 0.3880538955731291, -0.41681949117856776, -1.7839385293756551, -0.1380646303051064, -1.0052529478405898, -1.6698645610936043, -1.119070813372467, 0.9184319281990845, -1.3403034592860328, 0.9674816599379895, 0.41161992590618274, -1.1641815232624106, -0.6103979175812143, -0.9004028662181605, -0.45126271223272985, 0.9533346491825618, 0.7244774850755205, -0.6042902332283081, -1.1218431190631564, -0.27952922630827925, 1.06973345476265, 0.8727009270518241, -0.44830274412602195, 0.20641338764709277, -0.4354423791651231, 0.845271063253398, 0.7223527031875204, 0.026002501828949837, 0.00022647960911697043, 0.023919697158214782, 0.16011474394940556, -0.06324029768229611, 0.10377370815972038, 0.09622503954423657, 0.17015877989912592, 0.12404394184730018, -0.1477465245869108, 0.1901663439635575, -0.05491005218479873, 0.14358173195454912, -0.18016185538596627, 0.13368389065133093, -0.13096656188146563, -0.2577950996245207, 0.09334725477442436, -0.08188919354754615, -0.15223002968088126, -0.011949596997183171, -0.07091545538443683, -0.057683509100738925, 0.12007649328183606, -0.015558966852162523, 0.13551879557974905, 0.2036697935063229, 0.11405514883858911, 0.10626842631104551, -0.12936376556019114, 0.21056466152583309, -0.10578603524879193, 0.18398924923788407, -0.10430901958086493, 0.1461422129864982, -0.16319377740429344, -0.20915366122412868, 0.1095774071579885, -0.10303560107438198, -0.1880561815592183, -1.0290463374375707, -0.6976106428095147, 1.324319902847058, 0.6510708860513419, -0.9272628359964206, 1.0354680074199845, -0.5945252033105966, -0.442418087782842, 0.5984535230343864, -0.294595836943388, -0.8780052899243518, 1.2295894623437078, 0.8201871093831323, 0.4436806095946335, -0.4084430566783263, 0.5653080033779987, 0.7741904413546252, 0.2866035173276788, 0.5926364321412666, 0.7193071147770563, 1.140101523990447, -0.7308484391077534, 0.5539763213533986, -0.9161943223905091, 0.6237100603309089, -0.34010441787508267, 0.9718201095036594, -0.45728381363294546, 0.7643671991580834, -0.25571934384907247, -0.41405247954062135, 0.5868006824218305, -0.4135699577072321, 0.62830838983266, 0.4808265366967252, 0.5935629874119415, -0.9067994427860184, -0.5630327543676114, -0.867616693467461, 0.6054061285024283, -0.35618408309957234, 0.45238601642414245, -0.28230594204657256, -0.5420682132248701, 1.1197917227892376, 0.974122565699282, -0.2871845599324444, -0.1691334680562183, -0.6644217627271174, 0.11261715682384422, -0.18524361201650055, -0.6604230337335438, -0.04090841779351995, 0.2597315130948272, -0.13873768496869968, -2.1633142878573626, -0.09956625162678696, -0.4126375165179303, 0.8152433787695776, -0.6437909264086079, 0.06262260691690717, -0.0455930890029939, 0.06111631983493463, 0.0442595540738878, -0.04544707911021172, 0.13732757969597462, 0.05549502707136164, 0.22722205560721503, 0.12052134135012929, -0.19648652164395036, 0.2066732945032907, -0.15619308857157657, 0.15782003377435622, -0.1781342534734956, 0.15303794056300157, -0.14389189800753324, -0.2056332408647196, 0.10052287473137891, -0.02754958970713955, -0.16814159417188795, -0.3032648502328453, 0.03682073693446484, 0.6006310405807948, 1.1400281142356699, -0.472855062780345, -0.6814162966197131, -0.8826935852330049, 0.5080431242933694, -0.542945930241174, 0.6901178499354099, 0.3316206029100045, -0.25472568639675913, -0.5390195112633634, -0.2402126402575856, 0.444059708646734, 0.24276027171187212, -0.3812697478737248, -1.0087906076282764, 0.7974171378057946, 0.8061740142671528, -0.7810219892391833, 0.48066221577891305, -0.61951504870159, 1.082763609298986, -0.6533686780314792, 1.1741579666268307, 1.224244314700913, -0.4609799249985017, 0.480136786814357, 0.19246156182728463, -0.14476446091920428, -0.8579893731373845, -0.12656260782169007, -1.2844213580043375, -0.39645950318220324, -0.8811736052741805, 0.021085898828340607, -0.3486533971276915, 0.6195324728023167, -0.5617926388255623, -0.47942434953212226, -0.7654896680487948, -0.5528982320895208, -0.4806371154886853, -0.291600227296091, 0.7133061855916901, -0.5398085683942119, 0.9221773650890193, -0.5164083535316207, -0.979683909958494, 0.6763801945152172, -0.7504520837949662, 0.7645054505386878, 0.43294308093479106, -0.28610586767067037, 0.46122051287158017, 0.2975189067253211, 0.6374675220360825, 0.4068096671264396, 0.4542472400932157, 0.06251401001108543, -0.005492214467018765, -0.04850905201965073, 0.1781242962962409, -0.03730452780286141, 0.1577350324223135, 0.24085143404520576, 0.10605464891282407, 0.01396503922639537, -0.15281420254525302, 0.12635871112817865, -0.07649857221298217, 0.14214964209269748, -0.15157023488944735, 0.22092967360960838, -0.09854835978466446, -0.1815931392979626, 0.19826740141946603, -0.1455217125828473, -0.2721565677830454, 0.12902950198636168, -0.08162031856327658, -0.03208803656121626, 0.03674587385218443, -0.09886803021951847, 0.14515647308384672, 0.1372186315692761, 0.04637776647694292, 0.07084400800478588, -0.11124888035522053, 0.24023958842990475, -0.056705626233901574, 0.29149793839651905, -0.10012650236517655, 0.24417130986520194, -0.10091352170614398, -0.20256298933456313, 0.0302385580593672, -0.18174394450876663, -0.19637909447506635, 0.047853535859353986, -0.08490028712385501, -0.014227701367885514, 0.12302428092025637, -0.007560782972976805, 0.16382823993047282, 0.14097648480444444, 0.13088809093175882, 0.00223541211003547, -0.1266769224806026, 0.14090972251202008, -0.10723518670841203, 0.1957632096153945, -0.09751878079374998, 0.1921206163220705, -0.12124216680531645, -0.300784760339789, 0.08562073436634954, -0.15034095076175538, -0.08919400200016844, 0.07657073214170962, -0.09240857081464675, 0.0073003910421314995, 0.1327884666824336, -0.031215860646257105, 0.13565743821278278, 0.17058038094146788, 0.13573801238630137, 0.06423242630954171, -0.14802155514570506, 0.1552617613085032, -0.11407119710844617, 0.12084632654330273, -0.14020867939899692, 0.15378907594773386, -0.13250214524502504, -0.2529391828875902, 0.11560502256633724, -0.13888124460287707, -0.14110464486361665, 0.05405606284146382, -0.04288195555247864, 0.03653867422333567, 0.09034734439389938, -0.10694391455599121, 0.10603042000262473, 0.1559518798428267, 0.13362895831457466, 0.12155110721371562, -0.2313620981988044, 0.12175787148306254, -0.03808703248078185, 0.18153246686982194, -0.16133056343800686, 0.15441900313839194, -0.17857546730359916, -0.2816802899088568, 0.09283174213675223, -0.1003331030537156, -0.13651391581939937, 0.1690423458823603, -1.2737879197052706, -1.362933066715334, -1.3356482360794668, -1.2299980858625483, -0.0405098429947821, 2.1519099176243746, -0.7377718026158461, 2.8860104640252553, -1.1469772116986705, -1.4673447593020794, -0.8305476752262705, 0.7037010778455315, 1.3253440569045718, -0.6648124825981467, 1.1039863500014422, 2.4368962118717636, -2.3190962115885654, 0.4161268059146505, 2.2064404753159375, 0.5605102432009001, -0.8349254546829921, 0.06113261485304315, 0.802495954775395, -0.8289874988082555, 0.5740661046338973, 0.7444088767535167, 1.788906426041044, -0.712339798493186, 0.3463562691243281, -1.189880014962285, 0.29828105868684135, 1.1984504171050743, -1.4665343458613156, -0.2943053252538726, 1.4372253863723659, -0.8974542461130345, -1.4723901546824623, 0.929120127863046, 0.7744138380267233, -0.011320962644726998, -0.08870580509114435, -0.029638617823072807, 0.1096047410973666, -0.05506688192961432, 0.21395783851126549, 0.11660317645558325, 0.1463787685306089, 0.09247702711167517, -0.27604725317592377, 0.21218978162366967, -0.18293855404046175, 0.2063157470752944, -0.19206426180070132, 0.08612988407742274, -0.15568474474619762, -0.13026286147104194, 0.08259134438747488, -0.12775690405643306, -0.18603837045779847, -0.26518555817955103, -0.5954836089506101, -0.4472506425859093, -0.3488075682332999, -0.8961871057732701, -0.610280329003795, 0.585945616377643, 0.7065258184911352, -0.25595162602275523, 0.20735095612999416, 0.9559893615455612, 0.5404707400719437, -0.3932077077878043, 0.6419082393584674, -0.23233333191520783, 1.0175395523055468, 0.22654439275388308, -0.1890606156417337, 0.39480381045179674, -0.6963958164971559, -1.376696912535441, -1.1973567034633694, 1.3492167843181775, -0.8793116748380425, -1.0355412159726098, 0.9190591821440841, 1.1232740477757392, -0.12353789434701462, 1.57477685505454, 0.5270881013128912, -0.030891780402820306, 0.7745628277078351, -0.33835081621386753, 0.4484753950102629, -0.27799177325533847, 0.28785540750532024, -0.8501407377760425, -1.5188097500989945, -1.624829430656064, 0.6586734780762177, 0.09159604776248235, -0.0844802703896474, -0.04791663810515322, 0.1283440491272247, -0.044526235991336434, 0.14931274739077796, 0.11840758520792022, 0.15037067938700208, 0.07558981021151692, -0.21040905942026977, 0.19364203797796842, -0.044012946547369376, 0.16951494094408315, -0.09606200638382405, 0.07437438400484409, -0.147454679496055, -0.3237790161454214, 0.10642675347063295, -0.15848362217789108, -0.1277439423424189, -0.5035991145562194, -0.6727828836293139, 0.669289855624511, 0.48747848871506233, -0.6650793488230208, 0.7752635883692734, 0.799124159107701, -0.26123031805101815, 0.718594516971891, -0.514134428785945, -0.38690571485553077, 0.698894197029522, -0.4680899215049346, 0.3845812744469987, 0.18086824403684426, 0.35372761836809236, -0.6913940788439457, -0.5063734082280192, -0.8099245281522245, -0.08513416058712366, -0.180213728262556, -0.5564391887021587, -0.38053619514674875, -0.44925825530732416, -1.2398316548018582, -0.7390412158443053, 0.5769485953769966, 0.7786899470313207, -0.3252948338461808, 0.15410176886832147, 1.1415294952072572, 0.6694211174796136, -0.3904647382749553, 1.2327624733865679, -0.3335489362226609, -0.4484116827084515, 0.14108803766916625, 0.2332053427429578, 0.3631639971689726, -1.1316583851460515, 0.8919323360015896, 0.6429273178929567, -0.6038084993405468, 0.4959300666674821, -0.8662655035923988, -0.7761034092085884, 0.1689504257862917, 0.14940145912357078, -0.3572269828698145, 0.09583223469700043, -0.49804788534289857, -0.2667255992557819, -0.1835258831082155, -0.9453802101388936, 0.3892536119841092, -0.027512391899709724, 0.3936340000364058, -0.44551475150255615, 0.5966545601754022, 0.3021605928004629, -0.5383080895749857, -1.0457822656563984, 0.4082826607812639, -0.49032701969104614, -0.5842312563078769, 0.010408278536967255, -0.25283213710527697, 1.5207948460254546, -0.510252991735244, 0.9453784803665573, 1.0014170455546023, 1.2698435475769054, 1.1110654208965811, -0.7695872604223968, -0.2775898631911241, 1.440824512348514, 0.9696910882001836, 1.4906936713889614, 0.6686605186355767, -1.2600543750415378, -0.03951347358901274, 0.4975284439132507, 0.7650860636514999, -0.6682069899243184, -0.91460670242528, -0.9965795323815436, -0.7815400918475884, -0.5332679790138708, -0.798664604149962, 0.13723879345270953, -0.2530085616315117, 0.9359633468688684, -0.20033946881833806, 0.5081073896733795, -0.28621153023169027, -0.7220950116559122, 0.019939859370763483, -0.3413054114214968, 0.913031522286195, -0.8188834728524239, 0.013153516880129489, -0.15580718590392864, -0.022396329752041196, 0.17171182100119814, -0.11197353811823545, 0.13233258120989425, 0.13473526728662902, 0.1549945039182057, 0.1466229830400741, -0.13216737397827782, 0.09986907824656599, -0.037850029982636715, 0.21996762104901318, -0.14201182198618137, 0.1675857781709351, -0.193481658269598, -0.18002926814138576, 0.07214697013826374, -0.04978514927449356, -0.18397857844552162, 0.07159278214031496, -0.09528669007674306, 0.04932801100234109, 0.031085799254478432, -0.039900164899107214, 0.032935230177028256, 0.07765144985638668, 0.23742899311950522, 0.15544037645682715, -0.24873543250491945, 0.17861974763693786, -0.10939273740968275, 0.16862238851741243, -0.06303563440976483, 0.17892935477563188, -0.13962375532281318, -0.22347495893214314, 0.04267262395803961, -0.09046396467557795, -0.1261873207831393, 0.006792742591591902, -0.10268981876883046, 0.0346117035006745, 0.1216553483306545, -0.0884262313869839, 0.09646156899418999, 0.10308979237263108, 0.13619914669328273, 0.11365588569075875, -0.16544577057897517, 0.24321880681859512, -0.022839793152995343, 0.22243360566124853, -0.2107069586404303, 0.15047550559381936, -0.09878246311202854, -0.20245813342094862, 0.053251231506523826, -0.15751664877805097, -0.12000316022601701, -0.7531518605940114, -0.16602598349042344, 0.019693340325306615, -0.07326712894195186, -0.7947080866191434, -0.5236696283234985, 0.7045345342164564, 1.1423063566561578, 0.7606365726087215, 0.31076761232273326, -0.6105053967673322, 0.7288016677258918, -0.3613236550927096, -0.7554617233387746, 0.29450590770757606, -0.6632444567194296, 0.40197918551992873, -0.33764539719429953, 0.2937625043765533, 0.6428876740568571, -0.39146853221056616, -0.6510627655143533, -0.5225102657924682, -0.39158471670528544, -0.5288382349640036, -0.3567820976679463, 0.5645757274909544, 0.5770584667679318, -0.1735493860808356, 0.20387124385600358, -0.47842676230016895, 0.5641519990681233, -0.20937559896888644, -0.6729452994866206, -0.3458766057738531, -0.6076802366884838, 0.15165027685226262, -0.20561106711351787, 0.17970100052586707, 0.5239089481989353, -1.2486342316429806, -0.9564530556520934, 0.43734977582007334, -1.1170537985631794, 1.2966323241126523, 0.019126335180312436, -1.1566038497126732, -0.8092592727574305, 0.5793842317077161, -0.19242132921409533, -0.474845664851756, -0.20360268175348042, -0.34913293077979973, 0.318552045834299, -0.44739025776964947, -1.5686805772258812, -0.10309816387127503, -0.582939261773126, 1.0939067002376306, -0.7287630825938423, -0.9334138850891305, 1.5701417320377622, -0.7543352165100942, 0.5842715184441304, 0.5741240534147556, -1.3682373173385123, -0.5847251791699606, 0.052757853593321365, 1.2505819431239975, -1.1896308466744534, -1.4724433976358737, 0.05557883310543866, 1.6281612359284519, 0.3834867547584345, 1.2206497779409227, -1.4928388731671365, -0.263832170320521, -1.1068031309002466, 0.4622762615310076, 0.7551046523643385, -0.9655042405616779, 0.8342992167684176, -0.21190625139086547, -0.6605587820053322, -0.544358405266478, -0.19732134041764293, -0.6106088031549488, 0.16219550613664793, -1.4257649242305743, -1.1355408954543784, -0.964529139948244, 1.3944554928687867, 1.710454601390415, 0.19091496116147302, -0.1465113256692699, 0.561527915187684, 0.0806189978180827, 1.1026793896913871, -0.2706685421366307, -0.8808140009167965, -0.5667799288265571, -0.9281039980267153, -1.9179966410193205, 1.1743369036932352, 0.09328747149289686, 0.3921389926495311, -0.6700898407422567, -1.0547287553802813, 1.5653171342452032, -0.26620120477767917, 0.8516086826866531, -0.6436664077974357, 0.7462340670292446, 0.7560997663079209, 3.1648696428241005, 0.9836373128026806, 0.21496813051566843, 1.0468887918233252, 0.1970207444541134, 0.7952562286342382, 0.6178950194168871, -1.762876528802713, -0.3453740393609706, -0.00021496875046924275, 1.8689608686872525, 0.6310325812780254, 0.5010515051306996, -0.3577429631097263, 0.04497140385326266, 0.39791117641177864, 1.6910859249981536, 1.353666071607254, 0.14298338951644787, 0.7140141267094656, 0.5123300664518183, 0.309480155960656, 0.7900946516996649, 0.042264639059338686, 0.9840874676188799, -1.0612105837317358, 2.151128322585978, 1.1082646853976303, -1.4091585563579858, 1.1820008322598885, 1.5309424076897045, 0.3014415127507649, 0.09118530838209327, 0.03882726612813923, -1.6906245587159798, 1.0768204841675075, 0.2614163539010236, 0.6142564685570813, -0.9487227399703804, -1.5969702393094363, -0.32749512307478973, 0.5331212008326499, -1.678223591546342, -0.38841449138775885, -0.875489381707656, -2.295129368903947, -0.5271176640972257, -0.6671402663659559, -3.271242491681839, -0.08073141955362287, 0.3169453237140106, -1.6915869756258655, 0.3365006073243579, -0.382589100627559, 0.145100218551725, -0.03423254789490493, -1.150182487790962, -0.7482802331113657, -0.8895225322524439, -1.421432494518591, -0.5792907094769303, -0.6144647149447982, 1.259385759619239, 0.4689729904418707, -0.9894692269707452, 1.2889036563538885, 0.7600205235300214, 0.18191717403455773, 0.8635307120590457, -1.420311363158211, -0.48164011700171805, 0.5207227713407536, -0.21946912774622734, -0.3087629484714778, -0.4218654790262216, 0.3585121664600587, 0.9869768400595278, -0.5947307745435257, -0.2231949822980219, -0.9284671603436773, -0.1695331588347319, 0.14892518616011813, 0.46128203561898223, 0.694144275082934, -1.3483480133542247, 0.4580487725827744], "output_bias": [-0.35326239216475325, 1.3081518352657973, 1.629914985389999, 2.587104720926861, 0.29066643648892593, 1.7978937743603773, 2.6526477827596, 2.9869114070994143, -0.1714351309335556, 0.15105163909654495, -0.3797856759421023, 0.28114662729595047, 0.16418299455218477, -0.14998269600205116, -0.08796011529606053, -0.036596567546537444, 0.13755920301488042, -0.18552623931272, -0.3710010146520981, -0.3844595424269372, -0.5652637112483927, -0.3793722161548626, 0.0047859747302675575, -0.24479983159362476, -0.40432619225916633, -0.30519500538972927, 0.030729928040983248, 0.0919788101369025, -0.387965773425382, -0.39303081020413083, -0.3740448112568313, -0.3750053895535699, -0.36874531047222103, -0.37183539704397345, 0.2887359198514261, -0.04855381323707707, -0.38976133206048164, -0.1054903263985679, 0.16499616187462235, -0.17744980243690756, -0.3755975926404263, 0.04916328842053439, -0.21393098883064038, -0.36911109227791794, -0.3610389092251639, -0.396377341650847, -0.39214073342227845, 0.16795301965258524, -0.3789246864226786, -0.06660166899056283, 0.7767625541246873, 0.4765289629128112, 0.13117097701505806, 0.9321386579896022, -0.11063118467564136, -0.15343647252080453, -0.35276538146086284, -0.37359911349055774, 0.16765314712872673, -0.46890243317342833, 0.5664484442689558, 0.20655860865718167, -0.37814086052142787, -0.07804371525053105, -0.36833596745488417, -0.36686093524382174, 0.05864910702924907, -0.7275076594674375, -0.5826370143708431, -0.08679716417632677, 0.08801782472173171, -0.37339422675118555, 0.22270207664381114, -0.3974740357319593, -0.27460042252646255, -0.05855879724860467, -0.4122388457763338, -0.07011936455103654, -0.38950913372518947, -0.40615258024700984, 0.06422017562875298, -0.3985466178881764, -0.010533412846484522, 0.118647751087711, 0.893104821797249, 0.04456455873187402, -0.394297408253542, -0.08645633974325113, 1.7838624789574968, -0.4268666879299545, -0.1772007212558278, -0.3971661177714667, -0.3848646300162618, -0.29173847418895843, 0.14837104422343048, -0.2808836251201898, -0.38852056739149976, 0.34159511539898796, -0.23772708551978924, 0.016192757504765683, -0.3775916749121621, -0.3857715089895873, -0.3964659229719868, -0.3884863382938637, -0.3649865376221304, 0.3881604788731848, -0.12625321143921409, -0.37308646951359004, -0.1020532005603672, -0.5363331189876714, -0.36320685892094706, 0.20463391786935056, -0.2274183029896773, -0.05408683689493687, 0.0159321081018807, -0.23945539790020304, -0.38846400858674585, -0.39588114206779235, -0.3811781856334695, -0.010368334059125779, -0.15914538385076166, -0.45797790885498296, -0.5104644559208509, -0.26547577939659234, 0.23351504152109193, 0.7169427702295715, 0.532234511791948, 2.1304242237377062, -0.07137693977610883]}}